{
    "bias": [
        [],
        [
            0.11028982130447774,
            0.33337651202413804,
            0.07230134369313661,
            0.1588967329447897,
            0.35115741583416,
            -0.21076360973628827,
            -0.10163578522003251,
            0.2375880338861298,
            0.46317687904971533,
            0.1407713438079791
        ],
        [
            -0.6113862932789715,
            -0.1903629950392552,
            0.10828715907313001
        ],
        []
    ],
    "model_dict": {
        "cost": "mse",
        "hidden": [
            [
                10,
                "relu"
            ]
        ],
        "input": 21,
        "output": [
            3,
            "linear"
        ]
    },
    "weights": [
        [],
        [
            [
                -0.18195195516858742,
                -0.08843958018389514,
                0.11307692697053517,
                0.23052885253258665,
                0.3069913857406537,
                -0.29545787355472286,
                0.23957720135213584,
                0.3011275588127859,
                0.08831218985006495,
                0.3018536887877257
            ],
            [
                -0.21872819811439856,
                0.498037556355668,
                0.5194627282662483,
                -0.22921166037941626,
                0.3404524278634742,
                -0.14341774535587598,
                -0.2548387614692739,
                0.4170252347080139,
                0.4213746544999688,
                -0.2145841172557697
            ],
            [
                -0.0037693344620109604,
                0.8002403695047999,
                -0.17827129731918245,
                0.002188199952333707,
                0.8350631640663211,
                0.07910782631976508,
                -0.18875502002864314,
                0.2849291018861501,
                -0.08506496543658236,
                -0.23305895844140795
            ],
            [
                -0.2879695774143898,
                -0.2966272562079794,
                -0.14115538452119913,
                -0.22782093660284505,
                -0.30380239107236595,
                -0.0548011393451826,
                -0.18777249311292676,
                0.6274814650768987,
                -0.4911393990631921,
                0.3467515301976291
            ],
            [
                0.3664338754288961,
                -0.25001474958622166,
                -0.11888203700292452,
                0.5752102297441917,
                -0.3583279959649381,
                -0.17059297633939385,
                -0.12760787095693524,
                -0.4869301151904712,
                0.12990902504947338,
                -0.180962093212048
            ],
            [
                -0.14213012994545338,
                0.31550495515625476,
                -0.15205632756313628,
                -0.2078176796474215,
                0.5836749634860452,
                0.1770429230108633,
                -0.06497244032018962,
                0.7494457674238579,
                0.016751132893566157,
                -0.17116179356334335
            ],
            [
                -0.158439706369782,
                0.15051135657261347,
                -0.08189984058778482,
                -0.24327470951010274,
                0.30485650873751335,
                0.16692287035189698,
                0.5313791541497072,
                0.483909050648563,
                -0.49449880554101006,
                -0.16809187743811244
            ],
            [
                -0.15165203160366159,
                -0.3637447964033231,
                -0.12872732840993936,
                -0.24137897906804132,
                -0.36373994763541717,
                -0.19400117415856355,
                0.053998588782481614,
                0.992487606672201,
                -0.5244134754537854,
                -0.16865681618404427
            ],
            [
                -0.20700918090400466,
                -0.363570823378062,
                -0.12924597511720712,
                0.6614704764740246,
                -0.14636110231783328,
                0.11419019352053779,
                0.05367517040950915,
                -0.3641290478261759,
                0.3642474235469072,
                -0.21282415171839358
            ],
            [
                -0.16687472393639433,
                0.5272589685413787,
                0.36525241055240104,
                -0.2510652469027065,
                0.12223845774962716,
                0.17431908436545762,
                0.043986073877966374,
                0.49077695146357203,
                -0.052283456252665374,
                -0.17835563816526068
            ],
            [
                -0.1603444486443241,
                0.4563147676463086,
                -0.13273387714821339,
                -0.2244333293164367,
                0.30844769144974554,
                0.03665921953370205,
                -0.17561161355146374,
                0.613358385397632,
                -0.3367250429370655,
                -0.17698777515030062
            ],
            [
                -0.17822546643994533,
                -0.2739772438045623,
                -0.09972676323394251,
                -0.2554088335694306,
                -0.3652981979328088,
                -0.02417747451661767,
                -0.1930776037441266,
                0.5875608871857851,
                -0.27454170912868847,
                0.6248441886301599
            ],
            [
                -0.25048689638187616,
                -0.36376139194804996,
                -0.12023083277722656,
                -0.25237601237365587,
                -0.3901430993524085,
                0.11084904859268452,
                0.05701281877274633,
                -0.33572591382671935,
                0.842728877792509,
                0.2226457023415695
            ],
            [
                -0.1412757367691207,
                0.49698504619373995,
                0.3097321063841334,
                -0.23671789322823997,
                0.1723786238650254,
                -0.1306509596287351,
                -0.2621074602582865,
                0.4099980803307874,
                -0.25608279807053974,
                -0.1786551962093042
            ],
            [
                -0.14071496516437798,
                0.6799235059600471,
                -0.13344120158637895,
                -0.22764201638147158,
                0.2124879878683988,
                -0.15044925355674615,
                -0.303141205947659,
                0.3359052739503459,
                -0.48382304921747954,
                -0.21806350525745935
            ],
            [
                -0.23661766154295805,
                -0.3414459159742121,
                -0.13154712066323024,
                -0.19616932579106516,
                -0.1885481710378429,
                -0.18462846145923512,
                0.025447670034612915,
                0.4895764440011428,
                -0.4153250309026217,
                0.5378460328464384
            ],
            [
                0.5352960261898816,
                -0.3419655301361268,
                -0.07357790629554745,
                -0.27201824520745743,
                -0.21185427532298037,
                -0.11568903801454802,
                0.008239550317579832,
                -0.3146918728065866,
                0.24736406901835026,
                0.35336966248098106
            ],
            [
                -0.14040791474299597,
                0.14372497818167176,
                0.13128103079721534,
                0.11382177881835732,
                0.2800067661210448,
                0.172233707462595,
                -0.1993671924966825,
                -0.05594749978001213,
                -0.12205256731044187,
                0.03516059207544402
            ],
            [
                0.16353705018018233,
                -0.23569880281160407,
                -0.16569105425449696,
                -0.010827852786234438,
                0.08059750745293665,
                0.06130642847975337,
                -0.1605532270598746,
                -0.05184596920354351,
                -0.24393627962332184,
                0.15074315232446817
            ],
            [
                -0.15955141029213354,
                -0.38538930124492715,
                -0.13689195944209726,
                0.0654799401709394,
                -0.37211157092706726,
                0.10263654798521066,
                0.05762083756915871,
                0.0838570794501454,
                -0.4015352647678896,
                0.8706902961311369
            ],
            [
                -0.051059836686671245,
                -0.012096735300796746,
                -0.17771574426325767,
                0.11921866785776708,
                -0.11134032964973878,
                0.09420759617264196,
                0.2709659267367958,
                -0.05420784725130545,
                -0.15361311782593948,
                -0.058702456643712236
            ]
        ],
        [
            [
                -0.13948934965866364,
                -0.2537262442052276,
                -0.7866361836078839
            ],
            [
                0.701983792012573,
                0.4467561959506191,
                -0.16284453212887418
            ],
            [
                0.34948324291372745,
                -0.0536485539073265,
                -0.46832837546978123
            ],
            [
                -0.41560021732621805,
                -0.6881524483326628,
                -0.23897265982550805
            ],
            [
                0.5986611867288526,
                0.5597030191670909,
                -0.5201042013307261
            ],
            [
                -0.30861655455135906,
                -0.25600694964617243,
                -0.22242690596636355
            ],
            [
                0.1857726171597832,
                0.36473888035492563,
                -0.21928758114377225
            ],
            [
                0.7889720780189233,
                0.5674242970617888,
                0.7239584739983623
            ],
            [
                -0.12692975313195867,
                -0.3743307266876258,
                -0.9230126399237985
            ],
            [
                -0.3101603592920585,
                -0.6217636535044039,
                0.5991209409891434
            ]
        ],
        []
    ]
}